Language model created by QuickLM on Sun Jul 25 09:16:09 EDT 2021
Copyright (c) 1996-2010 Carnegie Mellon University and Alexander I. Rudnicky

The model is in standard ARPA format, designed by Doug Paul while he was at MITRE.

The code that was used to produce this language model is available in Open Source.
Please visit http://www.speech.cs.cmu.edu/tools/ for more information

The (fixed) discount mass is 0.5. The backoffs are computed using the ratio method.
This model based on a corpus of 10 sentences and 9 words

\data\
ngram 1=9
ngram 2=17
ngram 3=20

\1-grams:
-0.9031 </s> -0.3010
-0.9031 <s> -0.2430
-1.6021 BROWSER -0.2430
-1.2041 CLOSE -0.2430
-1.6021 OBS -0.2430
-1.2041 OPEN -0.2430
-1.6021 STEAM -0.2430
-1.6021 VOICEMETER -0.2430
-1.6021 YOUTUBE -0.2430

\2-grams:
-0.6021 <s> CLOSE 0.0000
-0.6021 <s> OPEN 0.0000
-0.3010 BROWSER </s> -0.3010
-1.0000 CLOSE OBS 0.0000
-1.0000 CLOSE STEAM 0.0000
-1.0000 CLOSE VOICEMETER 0.0000
-0.3010 OBS </s> -0.3010
-1.0000 OPEN BROWSER 0.0000
-1.0000 OPEN OBS 0.0000
-1.0000 OPEN STEAM 0.0000
-1.0000 OPEN VOICEMETER 0.0000
-1.0000 OPEN YOUTUBE 0.0000
-0.3010 STEAM </s> -0.3010
-0.3010 VOICEMETER </s> -0.3010
-0.3010 YOUTUBE </s> -0.3010

\3-grams:
-1.0000 <s> CLOSE OBS
-1.0000 <s> CLOSE STEAM
-1.0000 <s> CLOSE VOICEMETER
-1.0000 <s> OPEN BROWSER
-1.0000 <s> OPEN OBS
-1.0000 <s> OPEN STEAM
-1.0000 <s> OPEN VOICEMETER
-1.0000 <s> OPEN YOUTUBE
-0.3010 CLOSE OBS </s>
-0.3010 CLOSE STEAM </s>
-0.3010 CLOSE VOICEMETER </s>
-0.3010 OPEN BROWSER </s>
-0.3010 OPEN OBS </s>
-0.3010 OPEN STEAM </s>
-0.3010 OPEN VOICEMETER </s>
-0.3010 OPEN YOUTUBE </s>

\end\
